tree
version=v2
num_class=1
num_tree_per_iteration=1
label_index=0
max_feature_idx=32
objective=binary sigmoid:1
feature_names=Column_0 Column_1 Column_2 Column_3 Column_4 Column_5 Column_6 Column_7 Column_8 Column_9 Column_10 Column_11 Column_12 Column_13 Column_14 Column_15 Column_16 Column_17 Column_18 Column_19 Column_20 Column_21 Column_22 Column_23 Column_24 Column_25 Column_26 Column_27 Column_28 Column_29 Column_30 Column_31 Column_32
feature_infos=[0:7] [0:1] [0:1] [0:1] [0:1] [0:1] [0:1] [0:1] [0:1] [0:1] [0:1] [0:1] [0:1] [0:1] [0:1] [0:1] [0:1] [0:1] [0:1] [0:1] [0:1] [0:1] [0:1] [0:1] [0:1] [0:1] [0:1] [0:6] [0:1] [0:1] [0:1] [2:14] none
tree_sizes=2506 2543 2552 2555 2552 2547 2543

Tree=0
num_leaves=31
num_cat=0
split_feature=3 2 6 13 18 1 31 22 27 0 28 15 31 25 0 31 24 27 11 19 27 15 27 0 27 21 0 4 0 16
split_gain=1672.7 662.476 335.058 296.572 257.955 209.945 165.141 145.247 93.0893 79.7694 69.8833 50.3365 49.0074 46.734 45.9252 34.9812 16.7761 14.0129 12.9446 8.90445 12.1735 8.28578 7.1752 5.11464 4.92162 4.47465 4.099 8.48594 3.30777 3.19911
threshold=1.0000000180025095e-35 1.0000000180025095e-35 1.0000000180025095e-35 1.0000000180025095e-35 1.0000000180025095e-35 1.0000000180025095e-35 3.5000000000000004 1.0000000180025095e-35 1.5000000000000002 1.0000000180025095e-35 1.0000000180025095e-35 1.0000000180025095e-35 7.5000000000000009 1.0000000180025095e-35 1.5000000000000002 2.5000000000000004 1.0000000180025095e-35 1.5000000000000002 1.0000000180025095e-35 1.0000000180025095e-35 1.5000000000000002 1.0000000180025095e-35 2.5000000000000004 2.5000000000000004 1.5000000000000002 1.0000000180025095e-35 1.5000000000000002 1.0000000180025095e-35 1.5000000000000002 1.0000000180025095e-35
decision_type=2 2 2 2 2 2 2 2 2 2 2 2 2 2 2 2 2 2 2 2 2 2 2 2 2 2 2 2 2 2
left_child=1 2 3 4 5 11 9 8 13 -2 14 12 18 -7 -9 -11 -10 -3 -1 20 -6 25 -19 -14 -4 26 27 29 -17 -8
right_child=6 17 24 -5 19 7 21 10 16 15 -12 -13 23 -15 -16 28 -18 22 -20 -21 -22 -23 -24 -25 -26 -27 -28 -29 -30 -31
leaf_value=-2.0550189461947905 -1.43359967695186 -2.1238630485802656 1.3324744193585658 1.9337655915343765 -0.46314352002920495 -0.71826729292988867 0.82513904335239108 -1.2573287935892716 0.34715700441359321 -0.13478960358733616 -1.600032030544702 0.48144301777598986 -0.85923101510887101 0.91251519944103365 -0.66282756015982114 0.87470354242320036 -0.42132783139909341 -1.7845300302750768 -0.89245125663168179 1.5977725624548567 1.2674090364743396 2.0520701510719954 -0.84262089434746568 0.32778493198668257 1.9358513750862374 2.0509531566496841 1.6062272322182027 1.6560158430467975 1.3638675475976221 1.4144494497720264
leaf_count=944 107 1747 200 173 26 2914 128 1036 559 166 961 42 27 81 1332 123 165 389 45 154 61 165 40 41 87 73 682 182 125 61
internal_value=0 -0.309936 -0.0524874 -0.127942 -0.184548 -0.248422 1.88562 -0.11418 0.17345 0.879238 -0.435506 -1.10933 -1.19967 0.00871845 -0.240041 1.30051 0.8549 -1.35677 -1.31924 1.9747 1.43311 2.29175 -1.01383 0.539351 2.19826 2.22681 2.19166 2.01251 1.80414 1.69822
internal_count=12836 11024 8848 8561 8388 8147 1812 7048 3719 521 3329 1099 1057 2995 2368 414 724 2176 989 241 87 1291 429 68 287 1126 1053 371 248 189
shrinkage=1


Tree=1
num_leaves=31
num_cat=0
split_feature=2 0 7 20 21 31 29 29 19 27 31 27 31 27 31 9 31 31 22 10 31 0 0 27 0 11 21 31 24 31
split_gain=114.803 48.5266 36.7434 34.635 29.9606 26.9151 23.0683 18.7995 17.4169 15.4168 15.2932 12.0685 11.0383 12.1317 14.3242 13.084 8.07905 6.91425 6.83414 6.62709 6.58866 10.4742 5.33016 5.32485 5.17965 5.17898 5.42688 4.80956 4.72427 4.6733
threshold=1.0000000180025095e-35 1.0000000180025095e-35 1.0000000180025095e-35 1.0000000180025095e-35 1.0000000180025095e-35 4.5000000000000009 1.0000000180025095e-35 1.0000000180025095e-35 1.0000000180025095e-35 1.5000000000000002 8.5000000000000018 2.5000000000000004 11.500000000000002 2.5000000000000004 7.5000000000000009 1.0000000180025095e-35 5.5000000000000009 2.5000000000000004 1.0000000180025095e-35 1.0000000180025095e-35 5.5000000000000009 2.5000000000000004 2.5000000000000004 1.5000000000000002 2.5000000000000004 1.0000000180025095e-35 1.0000000180025095e-35 5.5000000000000009 1.0000000180025095e-35 3.5000000000000004
decision_type=2 2 2 2 2 2 2 2 2 2 2 2 2 2 2 2 2 2 2 2 2 2 2 2 2 2 2 2 2 2
left_child=1 8 3 4 7 6 -5 18 17 28 11 20 13 15 -15 -9 -4 -1 -3 -19 23 -22 -7 -6 -11 26 -26 -20 -2 -8
right_child=9 2 16 5 10 22 29 12 -10 24 -12 -13 -14 14 -16 -17 -18 19 27 -21 21 -23 -24 -25 25 -27 -28 -29 -30 -31
leaf_value=-1.072787817473303 -0.99143030324820647 -0.58301498931364892 -1.0533906648917402 0.57553047205342522 0.34668252739656358 0.51937105807709505 -0.45846102736128586 -0.050869127262312297 -1.2148470169001131 -0.56891188427912098 -0.61880657916297133 1.6229148458709972 -1.3071510236995709 0.90513099342250936 -0.099481208336353391 -0.8047535232902987 -0.19475151409256594 -0.23805065166435288 -0.10177182020897647 -1.2772456598100361 -0.50612807977557017 0.40951014753595427 0.94921090720815615 0.89562210588321467 0.97602095546759693 -1.2098072280005219 -0.2328265837454141 -0.47120193870363308 0.32635563936740086 0.012058618257987454
leaf_count=89 1718 405 399 222 591 439 268 4994 169 305 81 41 33 157 146 232 110 481 682 62 108 133 189 101 49 20 61 363 29 159
internal_value=0 -0.0597912 -0.0159528 0.00921915 -0.0511479 0.334795 0.0234401 -0.110746 -0.625012 -0.81592 0.287014 0.362811 -0.0514284 -0.0428279 0.406317 -0.0694361 -0.819104 -0.415534 -0.36151 -0.3144 0.316216 0.00506864 0.648413 0.423047 -0.367423 0.0828826 0.309904 -0.233897 -0.969555 -0.278643
internal_count=12836 10654 9853 9344 8067 1277 649 7012 801 2182 1055 974 5562 5529 303 5226 509 632 1450 543 933 241 628 692 435 130 110 1045 1747 427
shrinkage=1


Tree=2
num_leaves=31
num_cat=0
split_feature=2 31 31 25 19 0 8 23 10 26 31 9 31 0 31 24 20 24 1 24 27 0 15 27 31 26 3 0 4 27
split_gain=24.8262 12.6623 21.4841 11.4282 10.5548 10.4549 7.66577 7.36499 7.36913 6.13696 6.66623 5.7936 16.253 5.13747 6.19751 4.95007 4.7082 6.20012 4.6244 4.37831 6.66809 4.37316 4.24535 4.14792 4.84689 4.08009 3.92112 6.49702 3.81669 3.61685
threshold=1.0000000180025095e-35 3.5000000000000004 6.5000000000000009 1.0000000180025095e-35 1.0000000180025095e-35 2.5000000000000004 1.0000000180025095e-35 1.0000000180025095e-35 1.0000000180025095e-35 1.0000000180025095e-35 4.5000000000000009 1.0000000180025095e-35 4.5000000000000009 4.5000000000000009 9.5000000000000018 1.0000000180025095e-35 1.0000000180025095e-35 1.0000000180025095e-35 1.0000000180025095e-35 1.0000000180025095e-35 3.5000000000000004 1.5000000000000002 1.0000000180025095e-35 1.5000000000000002 5.5000000000000009 1.0000000180025095e-35 1.0000000180025095e-35 1.0000000180025095e-35 1.0000000180025095e-35 2.5000000000000004
decision_type=2 2 2 2 2 2 2 2 2 2 2 2 2 2 2 2 2 2 2 2 2 2 2 2 2 2 2 2 2 2
left_child=1 6 7 4 23 19 16 8 9 11 -11 15 -13 29 -15 22 17 26 -17 20 25 -19 -3 24 -2 28 27 -1 -4 -7
right_child=3 2 5 -5 -6 13 -8 -9 -10 10 -12 12 -14 14 -16 18 -18 21 -20 -21 -22 -23 -24 -25 -26 -27 -28 -29 -30 -31
leaf_value=-0.67349032755458926 -0.84517582340787911 0.15644005186322876 -0.50042817977061227 1.629711881441342 0.9398979959210193 -0.14965875338958282 -1.0663700819369211 -0.3774201185991547 -0.74439049070234486 -1.1903881994668726 0.036517745979831519 -1.0583263561454659 1.9034316995745442 0.045189168725435734 1.0065819474815956 0.55985258913896407 0.06126216725013884 -0.080278576859951267 -0.22186881207374839 0.20894594351269716 0.88922308742772593 -1.1627299087656517 0.61086077494217328 -0.34056537690887184 -0.062368686198472217 0.55700865437479896 -0.00090272375185887152 -0.17791252746562625 0.48212965908394456 0.26601808634637619
leaf_count=279 1528 4628 758 25 47 879 183 155 125 60 62 202 26 123 55 76 457 27 258 63 21 59 170 378 204 22 519 1285 29 133
internal_value=0 -0.0278934 0.0215249 -0.501287 -0.546784 -0.17728 -0.167066 0.101064 0.116926 0.126035 -0.442469 0.13765 -0.533056 -0.0353251 0.337486 0.147134 -0.149397 -0.196634 -0.117614 -0.366977 -0.412725 -0.794134 0.167952 -0.6083 -0.748095 -0.445993 -0.169785 -0.23256 -0.473092 -0.0973796
internal_count=12836 10654 7845 2182 2157 2083 2809 5762 5607 5482 122 5360 228 1190 178 5132 2626 2169 334 893 830 86 4798 2110 1732 809 2083 1564 787 1012
shrinkage=1


Tree=3
num_leaves=31
num_cat=0
split_feature=8 2 31 31 1 0 30 13 7 31 0 27 21 19 25 31 10 11 24 0 31 0 28 31 20 22 31 31 0 31
split_gain=6.71021 4.85772 4.30692 3.76561 5.83757 4.38595 6.56774 5.79834 5.18061 4.60596 3.95081 3.83341 3.27985 5.31947 4.96405 4.68151 3.10336 2.75141 2.27144 2.23361 2.19412 2.98619 2.31141 3.59664 2.16553 2.05352 2.22162 2.21449 2.16622 2.00491
threshold=1.0000000180025095e-35 1.0000000180025095e-35 3.5000000000000004 9.5000000000000018 1.0000000180025095e-35 2.5000000000000004 1.0000000180025095e-35 1.0000000180025095e-35 1.0000000180025095e-35 5.5000000000000009 5.5000000000000009 1.0000000180025095e-35 1.0000000180025095e-35 1.0000000180025095e-35 1.0000000180025095e-35 2.5000000000000004 1.0000000180025095e-35 1.0000000180025095e-35 1.0000000180025095e-35 3.5000000000000004 4.5000000000000009 3.5000000000000004 1.0000000180025095e-35 8.5000000000000018 1.0000000180025095e-35 1.0000000180025095e-35 7.5000000000000009 6.5000000000000009 2.5000000000000004 7.5000000000000009
decision_type=2 2 2 2 2 2 2 2 2 2 2 2 2 2 2 2 2 2 2 2 2 2 2 2 2 2 2 2 2 2
left_child=1 3 24 5 -5 7 10 8 12 -10 20 -6 14 15 16 -14 -1 18 19 25 21 -7 23 -22 -3 26 27 -4 -28 -24
right_child=-2 2 17 4 11 6 -8 -9 9 -11 -12 -13 13 -15 -16 -17 -18 -19 -20 -21 22 -23 29 -25 -26 -27 28 -29 -30 -31
leaf_value=-0.048873450666162804 -0.95761440885089855 -0.88910411123100086 0.032679373816888659 0.27657927105347768 0.43388862563259956 0.39415154675555086 -0.6774180080658786 0.69756570568118559 -0.96548280206818371 0.086429634737766561 -0.75375299716225685 -0.54161936766310248 0.89194540635156194 1.159286185871004 0.4514820222712036 0.039076045783276919 -0.68164654114375478 -0.67812174120880564 0.56391902889373602 -0.68919638312496889 0.19732327262213731 -0.50033632245286841 -0.18133569231222604 -0.12305895545147537 -0.21558073172611611 -0.57369287918420897 -1.0017323774632108 0.71582547703130339 0.34805465971922328 0.30236984337079675
leaf_count=6707 240 550 656 97 30 256 57 104 270 65 29 198 30 27 96 693 137 228 57 76 1056 20 265 217 339 158 28 56 20 74
internal_value=0 -0.0211186 -0.262226 -0.01023 -0.258069 -0.00164773 0.0958663 -0.0279332 -0.033863 -0.570496 0.119244 -0.442338 -0.0266418 0.111768 -0.0446056 0.0782576 -0.0531757 -0.124023 -0.0398946 -0.113305 0.132077 0.323298 0.0990613 0.141 -0.652006 -0.0284151 0.0661624 0.175535 -0.532429 -0.0869003
internal_count=12836 12596 2168 10428 325 10103 1974 8129 8025 335 1917 228 7690 750 6940 723 6844 1279 1051 994 1888 276 1612 1273 889 918 760 712 48 339
shrinkage=1


Tree=4
num_leaves=31
num_cat=0
split_feature=4 31 0 27 3 22 0 9 9 19 30 20 19 31 0 16 27 31 7 31 14 31 15 31 31 17 22 31 0 0
split_gain=2.95349 2.09107 7.61079 5.71605 10.8131 2.69255 2.15869 8.36049 5.97966 5.80797 5.80534 5.60773 5.34924 6.07975 10.7853 5.21571 3.80563 4.25929 5.11087 3.64466 3.17517 5.0602 2.7163 2.5368 2.52847 2.51108 2.50341 2.45734 3.11318 2.24878
threshold=1.0000000180025095e-35 2.5000000000000004 1.5000000000000002 1.0000000180025095e-35 1.0000000180025095e-35 1.0000000180025095e-35 1.5000000000000002 1.0000000180025095e-35 1.0000000180025095e-35 1.0000000180025095e-35 1.0000000180025095e-35 1.0000000180025095e-35 1.0000000180025095e-35 9.5000000000000018 3.5000000000000004 1.0000000180025095e-35 1.0000000180025095e-35 5.5000000000000009 1.0000000180025095e-35 4.5000000000000009 1.0000000180025095e-35 5.5000000000000009 1.0000000180025095e-35 6.5000000000000009 5.5000000000000009 1.0000000180025095e-35 1.0000000180025095e-35 4.5000000000000009 1.0000000180025095e-35 1.0000000180025095e-35
decision_type=2 2 2 2 2 2 2 2 2 2 2 2 2 2 2 2 2 2 2 2 2 2 2 2 2 2 2 2 2 2
left_child=1 2 3 5 -5 -1 7 9 12 10 16 27 15 19 -15 20 23 18 -18 -14 22 -22 26 -3 -12 -19 -8 28 -11 -29
right_child=-2 6 -4 4 -6 -7 8 -9 -10 11 24 -13 13 14 -16 -17 17 25 -20 -21 21 -23 -24 -25 -26 -27 -28 29 -30 -31
leaf_value=0.28588926412019627 0.20548196811039632 -0.20694232236917057 -1.0671229395897599 -0.99840180448308158 0.039275536682173359 1.3872347254614692 -0.08025632049054908 -1.1111376959092034 1.1779891993825276 -0.67965403273145197 0.80032049833917773 0.68332053844162055 0.76126504060950584 -0.93889503707649657 0.84407935256935107 0.75814809036338493 0.091246042855297013 -0.22235392419757691 -1.0497793995849904 0.22767372979825046 2.7705739827444456 0.11349945407609044 -0.66966149335001335 0.70036274319917913 -0.11753440550808683 1.3446014439697709 0.028781679993167247 0.28130271193786566 -0.10105890402259009 -0.52753342111862278
leaf_count=48 529 615 57 201 179 35 2813 232 26 136 67 35 81 64 27 67 2701 422 316 458 48 26 50 35 22 22 2872 29 404 219
internal_value=0 -0.0174247 -0.178527 -0.0673055 -0.212563 0.507656 -0.00997688 -0.0537394 0.0196359 -0.0419781 0.0059506 -0.22424 0.0144398 0.217877 -0.36383 -0.0121458 -0.0130797 0.0316094 0.0777117 0.309307 -0.0198865 0.958419 -0.0236342 -0.180157 0.585434 -0.198135 -0.0187605 -0.268875 -0.171226 -0.4596
internal_count=12836 12307 520 463 380 83 11787 5255 6532 5023 4200 823 6506 630 91 5876 4111 3461 3017 539 5809 74 5735 650 89 444 5685 788 540 248
shrinkage=1


Tree=5
num_leaves=31
num_cat=0
split_feature=14 2 0 31 27 22 22 3 0 9 3 0 31 31 0 0 27 21 29 25 25 0 31 11 30 0 31 31 27 20
split_gain=8.0797 1.41833 1.49682 2.90015 1.4793 5.37403 3.69211 3.40794 3.11617 3.066 3.34189 3.06452 3.36994 2.58858 7.43189 3.74184 2.58506 2.57085 2.99114 4.64915 2.58018 2.11639 1.94118 1.84212 1.82033 1.7451 1.58627 1.50993 2.13683 1.8482
threshold=1.0000000180025095e-35 1.0000000180025095e-35 4.5000000000000009 9.5000000000000018 1.5000000000000002 1.0000000180025095e-35 1.0000000180025095e-35 1.0000000180025095e-35 1.0000000180025095e-35 1.0000000180025095e-35 1.0000000180025095e-35 1.0000000180025095e-35 7.5000000000000009 4.5000000000000009 1.5000000000000002 1.5000000000000002 2.5000000000000004 1.0000000180025095e-35 1.0000000180025095e-35 1.0000000180025095e-35 1.0000000180025095e-35 2.5000000000000004 4.5000000000000009 1.0000000180025095e-35 1.0000000180025095e-35 1.5000000000000002 4.5000000000000009 3.5000000000000004 1.0000000180025095e-35 1.0000000180025095e-35
decision_type=2 2 2 2 2 2 2 2 2 2 2 2 2 2 2 2 2 2 2 2 2 2 2 2 2 2 2 2 2 2
left_child=1 4 3 -3 6 17 7 22 -8 10 13 -12 -13 15 16 -7 -15 20 -19 -20 24 -16 27 -10 26 -9 -6 -1 -29 -30
right_child=-2 2 -4 -5 5 9 8 25 23 -11 11 12 -14 14 21 -17 -18 18 19 -21 -22 -23 -24 -25 -26 -27 -28 28 29 -31
leaf_value=0.03170035808869482 -0.69079099725543081 -0.15557901433712443 0.6584285825803281 -1.5172651190139466 -0.4732035534280104 -0.13200299260800519 -0.37087600824375072 0.97649659497508845 -0.051930789941908723 -0.49814575141268291 0.46446902268315321 -0.42423664243607362 0.28306546409253325 1.0350819297896348 0.35321660509050085 0.54929060437939448 0.34448358446026622 -0.7045863156101434 0.35626138341077834 -0.92078073431480623 0.4083801502362065 0.051075837726934935 0.085436828272078033 -0.70617404378735527 0.38969919256714836 0.19971802263131966 -0.14513079221986447 0.05558167529924643 -0.29694188840460278 -0.0089717072398676524
leaf_count=1296 329 1804 24 25 88 210 340 40 3923 240 57 169 77 115 237 57 41 27 209 23 45 250 1551 23 29 58 649 263 319 318
internal_value=0 -0.00841308 -0.163634 -0.195601 -0.0032152 0.0500899 -0.0195305 0.034081 -0.0724102 0.161177 0.183521 -0.0728149 -0.213296 0.248287 0.325001 0.0383019 0.811718 -0.0712727 0.156315 0.244554 -0.130571 0.195265 0.0242746 -0.0564861 -0.16225 0.571455 -0.185357 -0.0256981 -0.10096 -0.191221
internal_count=12836 12507 1853 1829 10654 2523 8131 3845 4286 1453 1213 303 246 910 643 267 156 1070 259 232 811 487 3747 3946 766 98 737 2196 900 637
shrinkage=1


Tree=6
num_leaves=31
num_cat=0
split_feature=5 22 8 31 0 0 12 31 31 24 0 20 31 0 28 31 27 31 7 10 14 27 17 31 0 27 1 27 27 17
split_gain=1.88932 2.56327 1.04426 0.934031 0.85097 0.696562 0.663971 2.22751 0.798063 0.700531 5.2877 3.34037 2.92166 1.53369 1.13783 1.11071 1.87414 1.06014 1.0239 1.0768 0.860488 1.73991 1.28486 1.6205 0.745665 0.905978 0.664893 0.61309 0.477053 0.437942
threshold=1.0000000180025095e-35 1.0000000180025095e-35 1.0000000180025095e-35 3.5000000000000004 5.5000000000000009 1.5000000000000002 1.0000000180025095e-35 4.5000000000000009 6.5000000000000009 1.0000000180025095e-35 1.5000000000000002 1.0000000180025095e-35 5.5000000000000009 4.5000000000000009 1.0000000180025095e-35 8.5000000000000018 1.5000000000000002 3.5000000000000004 1.0000000180025095e-35 1.0000000180025095e-35 1.0000000180025095e-35 1.5000000000000002 1.0000000180025095e-35 5.5000000000000009 1.0000000180025095e-35 1.5000000000000002 1.0000000180025095e-35 1.5000000000000002 1.5000000000000002 1.0000000180025095e-35
decision_type=2 2 2 2 2 2 2 2 2 2 2 2 2 2 2 2 2 2 2 2 2 2 2 2 2 2 2 2 2 2
left_child=2 -2 4 -3 6 -4 9 -8 -9 18 12 13 17 14 -12 16 -13 -11 20 24 22 29 26 -24 -20 -26 -1 -5 -19 -22
right_child=1 3 5 27 -6 -7 7 8 -10 10 11 15 -14 -15 -16 -17 -18 28 19 -21 21 -23 23 -25 25 -27 -28 -29 -30 -31
leaf_value=0.036860401016981056 1.1150567535245364 -0.004703486242172295 -1.047725186830176 0.51228452616816034 0.34103373588574293 -0.090328537949230028 -1.0217366267459043 -0.18693358372592297 0.78207185396005563 0.1437791693515631 -0.32375026928689593 0.030703883589016368 -0.27068788599881771 -0.89951870914315168 -0.0048903627427402578 -0.24403738854710949 0.82255401883839063 0.46061406832327284 -1.1616515905485312 -1.1114029011344582 -0.41204483113273793 0.49364247162752961 -0.44581570934906301 0.65729035813041847 -0.28145438266364625 0.38497862049267345 -0.0114951691308038 -0.0476015464035454 0.83083709727774957 -1.1033428580219313
leaf_count=3925 28 84 210 52 46 30 230 73 22 37 337 36 33 20 94 21 37 48 22 64 255 24 107 92 237 37 6519 33 49 34
internal_value=0 0.245146 -0.00843234 0.146559 -0.00740326 -0.593286 -0.00881333 -0.332832 0.180313 -0.00762542 -0.0830963 -0.19998 0.311052 -0.292768 -0.257699 0.206688 0.356528 0.502364 -0.00222484 -0.28086 6.61776e-05 -0.286743 0.00195207 0.410373 -0.181744 -0.116627 -3.84114e-05 0.376574 0.652019 -0.501282
internal_count=12836 197 12639 169 12399 240 12353 325 95 12028 712 545 167 451 431 94 73 134 11316 360 10956 313 10643 199 296 274 10444 85 97 289
shrinkage=1


end of trees

feature importances:
Column_31=48
Column_0=35
Column_27=23
Column_22=8
Column_24=7
Column_19=6
Column_20=6
Column_2=5
Column_3=5
Column_9=5
Column_21=5
Column_25=5
Column_1=4
Column_7=4
Column_10=4
Column_11=4
Column_15=4
Column_4=3
Column_8=3
Column_14=3
Column_17=3
Column_28=3
Column_29=3
Column_30=3
Column_13=2
Column_16=2
Column_26=2
Column_5=1
Column_6=1
Column_12=1
Column_18=1
Column_23=1

parameters:
[boosting: gbdt]
[objective: binary]
[metric: binary_error]
[tree_learner: serial]
[device_type: cpu]
[data: ]
[valid: ]
[num_iterations: 100]
[learning_rate: 1]
[num_leaves: 31]
[num_threads: 1]
[max_depth: 9]
[min_data_in_leaf: 20]
[min_sum_hessian_in_leaf: 0.001]
[bagging_fraction: 1]
[bagging_freq: 0]
[bagging_seed: 3]
[feature_fraction: 1]
[feature_fraction_seed: 2]
[early_stopping_round: 0]
[max_delta_step: 0]
[lambda_l1: 0]
[lambda_l2: 0]
[min_gain_to_split: 0]
[drop_rate: 0.1]
[max_drop: 50]
[skip_drop: 0.5]
[xgboost_dart_mode: 0]
[uniform_drop: 0]
[drop_seed: 4]
[top_rate: 0.2]
[other_rate: 0.1]
[min_data_per_group: 100]
[max_cat_threshold: 32]
[cat_l2: 10]
[cat_smooth: 10]
[max_cat_to_onehot: 4]
[top_k: 20]
[monotone_constraints: ]
[feature_contri: ]
[forcedsplits_filename: ]
[refit_decay_rate: 0.9]
[verbosity: 1]
[max_bin: 255]
[min_data_in_bin: 3]
[bin_construct_sample_cnt: 200000]
[histogram_pool_size: -1]
[data_random_seed: 1]
[output_model: LightGBM_model.txt]
[snapshot_freq: -1]
[input_model: ]
[output_result: LightGBM_predict_result.txt]
[initscore_filename: ]
[valid_data_initscores: ]
[pre_partition: 0]
[enable_bundle: 1]
[max_conflict_rate: 0]
[is_enable_sparse: 1]
[sparse_threshold: 0.8]
[use_missing: 1]
[zero_as_missing: 0]
[two_round: 0]
[save_binary: 0]
[enable_load_from_binary_file: 1]
[header: 0]
[label_column: ]
[weight_column: ]
[group_column: ]
[ignore_column: ]
[categorical_feature: ]
[predict_raw_score: 0]
[predict_leaf_index: 0]
[predict_contrib: 0]
[num_iteration_predict: -1]
[pred_early_stop: 0]
[pred_early_stop_freq: 10]
[pred_early_stop_margin: 10]
[convert_model_language: ]
[convert_model: gbdt_prediction.cpp]
[num_class: 1]
[is_unbalance: 0]
[scale_pos_weight: 1]
[sigmoid: 1]
[boost_from_average: 1]
[reg_sqrt: 0]
[alpha: 0.9]
[fair_c: 1]
[poisson_max_delta_step: 0.7]
[tweedie_variance_power: 1.5]
[max_position: 20]
[label_gain: ]
[metric_freq: 1]
[is_provide_training_metric: 0]
[eval_at: ]
[num_machines: 1]
[local_listen_port: 12400]
[time_out: 120]
[machine_list_filename: ]
[machines: ]
[gpu_platform_id: -1]
[gpu_device_id: -1]
[gpu_use_dp: 0]

end of parameters

pandas_categorical:null
